1.5828946583539185, 1.9896038399218923, 0.6903950307337174, 1.7265872898190806, -0.5673661301794262, 0.5012445462851272, -1.0176798372911664, -1.1147385167744202, 0.569615856135774, 1.0914865921290646, -0.4083644053404387, 1.431872593427824, -0.3165083687788717, -0.02071922775356816, 0.36531090086424367, -0.5812145888066582, 0.5401116470385774, -0.5567385469458195, 1.0999557430966638, -0.7522970546809051, -0.24258155684170157, 1.6095655365653823, -0.495432704415411, 0.9812915904282806, -1.3571112232995102, -0.5694170605811664, 1.4408160489284638, 1.198749623503545, 0.17678943445361694, 0.9899131247299726, -0.49123166389979644, -1.0102285305862027, -1.0222279771179021, -0.6988529508814483, 1.9830174247132546, 0.7680577259824659, 0.04428325680278178, -1.982466373800416, -0.6216758205168484, -0.34553091872124986, 1.0703811595523036, 0.19466497289529627, 1.6748671045085275, 1.1579013773581628, 0.4734479615276741, 1.2949038815266416, -0.2262939040791756, -0.12134363029522932, -0.584271306103938, -1.2340454385069024, -0.3709687242872981, -1.6252325396555025, -1.3273254874836256, 1.660208339842653, 0.8445205653584136, 1.0522097102453256, 0.32437903678098134, -0.04369092410539199, -1.019900994734221, 1.5030438064529248, -0.6262174165776573, -1.337426258070995, 0.05790758632172466, 1.1616185843989655, 0.9865444967325976, -1.9689584729288288, -1.3673409944879427, -0.2323226160421754, 1.756855515256066, -1.6329132114432388, 1.6810686760270404, 1.523863321033577, 0.3341087085554739, 0.01251870387303855, -1.520355595494593, 0.05158593260779121, -1.8363071680646548, 0.3544610585861232, -1.4609222058688283, 1.6570873177915186, -0.35355514975952795, 1.2768487133345734, 1.1270250623047988, -1.7373555723626781, 0.6201712115975986, -0.14328842975151757, -0.6202868614496646, 0.2929374888827603, 0.1543347391885943, -0.22580114584327227, -0.030009554293235485, -0.844563194994647, 0.8532502430776314, -1.964740898252682, 1.862527897225942, -1.1511537395097737, -1.957623597155553, 1.5643035750385001, -0.2629609249062659, -0.11529454550180684, -0.9156302224973576, 0.9809225521465756, -0.9391761633550115, 1.6144204800999948, -0.6167659260981746, 0.8199348837327669, -0.5645903075409491, 0.6701136295645975, -0.7207852300149447, 1.5644006590494235, 0.047542032155412084, -0.7743020319593392, 1.3024253370452183, -0.32257759233297056, -0.2653684165347707, -1.705376617703465, -0.29225604791257664, 1.7866790810205861, -0.3440038915779855, -0.8120108370738617, 0.47277629174343483, -1.7158853314792855, 1.0144326295143986, -0.9481464554897157, -1.5421360767973207, -0.7555847659277592, 0.3100026511307621, -0.5720214447732257, -0.28507818281132824, 1.0700013469896938, -1.84060893460033, -0.6243906861291646, -1.5093895897250174, -0.7582252913522076, 0.29868114005878343, 1.1242641126228494, -1.9275054878645106, -0.7935491845925737, 1.9444810724415866, -0.7885068995178601, 1.720083276582765, -0.5456404868961227, -1.4843126265896198, -0.0852665349195787, 1.7531127640107504, -0.9034328849212088, 1.2532447437853156, -1.138192700448998, 0.43259996123315814, -1.1326716963407177, 0.5154155910510738, 1.3762496383770695, 1.484337533500864, 0.1254875771806554, 0.13785285017743965, -0.4252156532712972, -0.9679581777086623, 0.08877206905167334, 1.8827770605057887, -1.1511743442546924, -0.22407019757360613, -0.5554089679536274, 1.043720642338997, -0.14476396070838327, -1.1379292602522617, -1.053414049604418, 0.5712496707022741, -1.3556056697878929, 0.9277167224787939, 1.0748793432643637, 1.1879275944973076, -1.0656952347304238, -0.6125922042736751, 1.549902631539395, -0.3127637237797405, 0.1268740449597976, -0.09320954158997452, 1.4918756053696072, 0.9170225490768424, -0.7737274061749262, 1.6465497279655037, -0.12175246775849002, -1.0351966911724513, -1.2250554282728432, -0.38598686880333366, -1.4525893796956244, -1.6575478737162967, -0.05841645185379862, -1.1801285301041986, -1.9935458062570452, 1.2653960452034463, -0.4376209111222189, 1.778940252010754, 1.0568236723421642, 1.0609730176510097, -1.7694398942846306, -1.1027174922437335, 0.1907571459797639, -1.9973111804388308, 1.7302820934988996, -1.0233206460263848, -1.0693722825394727, 0.13830539428591315, 0.09749597008309019, 0.39693869553495764, 1.6753471909078117, 1.1100917252451405, -0.022886731222536927, -1.0174851157214686, 0.8093110149828324, 1.8308322691127534, -1.4631667086795144, 1.1403359556774624, 0.6165032572192892, -0.9915479627077937, -0.42306747423758706, 0.6089194862168927, -0.3339073532105532, -1.6751340785415314, -1.077268064707991, 0.5309622287607842, 1.2097810024061366, 1.7130677951176465, 0.850399524404351, -0.7889327679983027, 1.9970289539492851, 0.5841399568912546, 1.000510514502039, -1.0423683864980173, 1.1117832309464784, 1.565090338794616, -1.3949737855981441, 0.13321744083431053, -0.004087178226273913, 1.7828274198391822, 1.1089143098353924, -1.7146183016112762, -0.8195862313368325, -1.0907562204765346, -0.8587895168377733, -0.5348287917303716, 1.843415421353665, -0.6387579384164002, -1.5702980028357065, -1.6540384540895472, -0.2701083463295717, -1.9792069923464575, 0.19330891156846963, -1.4425438564203046, 1.8851598589536205, -1.7304859492865572, -0.6130699752752817, 0.9396696569171352, -1.2767007580634488, 0.08092415952288823, -0.45045914712704826, 1.780481765212603, 1.4601197699006812, -1.1756804189810226, 1.8063987075511632, -1.2993785047414512, 0.4480558288739722, -1.3447492273930242, -0.06606767207107023, -0.055299145645124614, -0.15076790471094048, 0.027293702793865116, -0.49068074913516435, 0.2316048505777597, 1.1750924370825206, 0.28093802282622926, 0.8434098649337485, -1.212562256405012, 1.1405883212626065, 1.2108625977387457, 0.0006311322932543995, 1.1514055419858722, -0.1497238888482859, 0.5253301685473266, -1.6357101262352347, 0.739187600165951, 1.7452858736736339, -0.05694967811036733, -0.5902905536639507, -0.2910081412783443, -1.0419783635008573, 1.2830579096399135, 1.5866641542660078, 1.8960528869400322, 0.2991709923548451, 0.09455398910363533, -0.8486995131400437, 0.44716667945208943, -1.7466714452963235, -0.2209038351210899, 1.4340767872740328, -0.43853518289321247, -0.012143574358134845, 0.5796990147749583, -1.402581667628482, -0.5940185802575431, 1.6863913174878786, -1.7905846762400524, 0.09927742380893134, -1.3715820851432836, -0.5904978271760086, -1.6074204921905175, -0.17658669653065884, 1.34814344311977, 0.7732540099715735, -1.6399096224471275, 0.16963043419254298, 1.6372794610575534, 1.3232638748512846, 1.1471480707726829, -1.356814732761611, 0.43095655802624666, 1.5231973496505158, -1.7947071329669297, 1.367294567007899, 0.2962058290694629, 1.3320198707142121, 1.1032911696184242, -0.2622610918539259, -1.9689055374741984, -1.6793287819557485, 0.30505943254416756, -1.7011786160615454, 0.2889292230291489, 1.5668246665300392, -0.8325975131322494, -1.1667747685209342, 1.274008090744128, -1.4252408079846908, 1.3879558521051183, 0.27119146564549057, 0.22162343539545537, -1.387269133622461, 0.22686969678477498, 1.9775638570949696, -1.6194905749173487, -1.8122336967288106, -0.7722299727978967, 0.20350341515147985, 0.788599888591007, 1.3347378655454691, 1.8928793073567882, -1.4423607462433483, 1.6918896567871062, -0.16227429215387623, -1.0581819862393296, -0.15298462789657208, 1.0488200210605565, -0.8978623154396255, -0.7617461537229508, 1.0060814326299412, 1.5052314729678717, -0.678559819292301, -1.8202384096007855, -0.4335477347058889, 0.08204711116213037, -1.559419667887901, -0.7484819288014726, 0.7718381868713982, -0.5222522771317846, 0.03343352262806576, -1.2776222072409071, 1.084013006181038, 0.1183781511350408, 1.7327294314353425, -0.7412182048163358, -0.7679486932240263, -0.9517602673642425, -0.19215971701925794, -0.4728740310794697, -0.08101536489291039, -0.575822496828382, 0.8823675848291259, -1.804071635066987, 0.5132034930666505, -1.9260823692373013, -1.3553401671180532, -0.6473435358470363, 0.13121780817202788, 1.2173900891904528, 0.27812229455913773, -0.7040843921465427, 1.6521477107346652, -0.8177612727499106, 0.28173168446905583, 0.8915261228209559, 1.7933499628244824, 0.45601708960831466, 0.08509227626799154, 1.96655402058714, -0.03530891470880837, -1.5488198559209838, -0.8910437252187413, -0.7541194312168864, -1.016059417754188, 0.20690585226077962, 0.9893378756376543, 0.5307779389239049, 0.19382010234386637, 0.3333854057715575, 0.5847986975318973, -1.5072335033397448, 0.733552992086596, 1.665418492839505, 1.6313908135679815, 1.143207655528002, 1.705854449675209, -0.4855115744309195, 0.5474581796636397, -1.5293471520030977, 0.1908761110982069, 1.8704594909030932, -0.15808306818152928, 0.3553044421278635, -0.5551170510452992, 0.8105398676140503, -0.7888491919253307, -0.1690798742491859, 0.9138195410920544, 1.3013893175562519, 1.030464241395121, 1.18103903202661, 1.2258704862314591, 0.4393827647241464, 1.1491861945934656, -1.5030973573598643, -1.0287032689637567, 0.7890139601181851, 1.9149139173245886, 1.4305729705855526, -0.4172611996692641, -0.06243960752638067, 1.7274376716103426, 1.6429528088252523, -1.2066703632069689, -0.08547222510290098, 1.2990762307237143, 1.5185273782177853, 0.280518576815449, 0.7082207313722688, 1.7515408320336099, 0.4250894807887975, -1.4173003756200724, 0.0222778292419199, 1.8107244661253468, -1.6521511334085193, 1.672877410613868, -1.619638449115278, 1.2376727518757096, 1.2473813520150152, 0.03300340009262026, 1.7871944806030067, 1.989457176381341, 1.824772973024825, -0.5988810774781861, 0.014994389894054105, -1.8915113336170588, -1.9265968320997544, 0.22839740678069287, -0.4661631128284234, 0.5989752634688199, 1.17377615289231, -1.463511630252626, -0.8078723951568931, 1.2311478643831428, -0.48143088151913593
