-1.2918894660631546, -1.626611786778359, 0.5224666753764322, 0.5810908362813563, 1.5591812870538133, -0.3897725398372405, -1.8555490026700565, -1.1999196575008906, 0.5683077838197774, -1.55611596365868, -1.3731589625585863, 0.24971913117971045, 0.6229948454285941, -1.755683893046522, -1.970372354334914, 1.51808954518985, -1.2689018117232043, -0.1244493450428017, -0.12707349829113834, 0.601557266657065, 1.5189488517419276, -1.8228510762995822, 1.915942639946798, -1.186623174158215, -1.5692845785392566, 1.3117780143659368, -1.6419754006702578, -0.9388693258093666, -1.8619918426706539, -0.8970273743878558, 1.6048588774490882, -1.0347278661427284, -0.5084919797241403, -1.1020718152602575, -0.11254386823654627, -1.169315284362955, 0.004743552831948161, -0.2716495992544119, 1.7206214619901572, -1.0389289334618654, 1.828498381246963, 0.0957685844512115, 1.7768675284866982, -1.6085950004464, 1.9536578518010819, 0.5094803636777727, -1.8219560517709135, 0.16672947533285498, 0.774492228899978, -0.8000438873312938, 1.371752163283971, -1.5809555938819688, -1.8824776396802596, -1.847353085460993, 0.5933365199674299, -1.907365651885614, 0.5583549275711559, -1.6907993175212224, -0.5080409113792914, 0.18593325863932542, 1.237691768891898, 0.6506285466671793, -1.7486763705096213, 1.7676765442887667, -1.1493297913235412, 1.713217839000456, 0.07349645474949318, -1.6365281453037421, 1.566718953268857, -1.0427090424702952, 0.5214338726741836, -1.624595369683914, -0.14110808140185593, 0.3916497592951984, 0.714693244430086, 1.7629424730034238, -1.068917955159976, -1.0842509460396972, -0.26477504051836576, 0.5966841002862706, 0.19709130808314024, 1.8285894190582885, 1.4269690742660384, 0.5673460795171632, -1.9117583834847198, -1.5526961096228091, 0.5510562739930802, 0.1885894577134044, -1.2706942541153308, 1.2984730857636881, -1.6075491808497815, 1.7841811332702404, -0.28785427123698915, -1.0599049535064315, -0.46672715103695017, 0.9760471739089973, 0.5182538515265533, -1.4841453081143805, 0.5345699957426095, -0.07243785525036195, -1.0976245689168653, -0.1328041368477333, 0.7902408772271423, 1.6857623914133857, 1.7747436843321513, -1.2889580954141597, 0.13278396787662938, 1.3757499237546664, -1.4550758167451048, -0.209482063393017, -0.09582896694006227, 0.9972243100422764, -1.284074783621219, 1.6978357398119277, -0.42506051073460727, -1.1385528982028035, 0.050697046416877445, 0.03805650495055435, -0.7833642314164155, 1.2149669516161428, -1.6688119146299236, 1.2047288451589453, -0.8473391050511214, -0.4178580973738488, -0.7082477204136652, -0.5502155330456628, -1.9785959207009323, 1.1978313172157908, 0.931166672864471, -0.9981402273986739, -0.15518281873065654, -1.8281038641142415, 0.948831822932735, 1.3942131498150339, 0.3504681105627463, 1.2912271256664138
