-1.169315284362955, 0.004743552831948161, -0.2716495992544119, 1.7206214619901572, -1.0389289334618654, 1.828498381246963, 0.0957685844512115, 1.7768675284866982, -1.6085950004464, 1.9536578518010819, 0.5094803636777727, -1.8219560517709135, 0.16672947533285498, 0.774492228899978, -0.8000438873312938, 1.371752163283971, -1.5809555938819688, -1.8824776396802596, -1.847353085460993, 0.5933365199674299, -1.907365651885614, 0.5583549275711559, -1.6907993175212224, -0.5080409113792914, 0.18593325863932542, 1.237691768891898, 0.6506285466671793, -1.7486763705096213, 1.7676765442887667, -1.1493297913235412, 1.713217839000456, 0.07349645474949318, -1.6365281453037421, 1.566718953268857, -1.0427090424702952, 0.5214338726741836, -1.624595369683914, -0.14110808140185593, 0.3916497592951984, 0.714693244430086, 1.7629424730034238, -1.068917955159976, -1.0842509460396972, -0.26477504051836576, 0.5966841002862706, 0.19709130808314024, 1.8285894190582885, 1.4269690742660384, 0.5673460795171632, -1.9117583834847198, -1.5526961096228091, 0.5510562739930802, 0.1885894577134044, -1.2706942541153308, 1.2984730857636881, -1.6075491808497815, 1.7841811332702404, -0.28785427123698915, -1.0599049535064315